,0,1,2,3,4,5,6,7,8,9,10,11,12,13,14,15,16,17,18,19,20,21,22,23,24,25,26,27,28,29,30,31,32,33,34,35,36,37,38,39
forte_family.alfred,-0.5264819860458374,-0.15320509672164917,0.13418973982334137,-0.3402063846588135,0.1053721010684967,-0.3729652762413025,-0.39965635538101196,-0.012938094325363636,0.2799268066883087,0.2537676692008972,-0.0948643833398819,-0.22249296307563782,0.47784629464149475,-0.2967003583908081,-0.203779399394989,-0.3605022430419922,-0.22914427518844604,-0.4090542197227478,-0.27264952659606934,-0.21984970569610596,0.2934684753417969,0.11186172068119049,-0.29855161905288696,-0.1460677981376648,0.24046853184700012,-0.2518201768398285,0.40532737970352173,-0.5513350367546082,0.3682425022125244,-0.02354290708899498,-0.19255323708057404,0.23951274156570435,-0.3794182240962982,-0.2025715559720993,0.0027221650816500187,0.23647162318229675,-0.3782675564289093,0.28908294439315796,-0.36805984377861023,-0.16391387581825256
forte_family.alice,-0.32463306188583374,-0.356425017118454,0.1744719296693802,-0.46446868777275085,0.11135879904031754,-0.0988827720284462,-0.10331667214632034,0.09101462364196777,0.4300732910633087,-0.06656745821237564,-0.410098671913147,-0.41037967801094055,0.2954541742801666,-0.2842628061771393,-0.20658400654792786,-0.4159800410270691,-0.07167474925518036,-0.14223431050777435,-0.3011941611766815,0.17696544528007507,0.4707772433757782,0.10721396654844284,-0.28132522106170654,-0.11808701604604721,0.3082583546638489,-0.5074614882469177,0.18836760520935059,-0.10005787760019302,0.3616856038570404,-0.34925931692123413,0.1988484114408493,0.14712166786193848,-0.18861323595046997,-0.26305732131004333,0.0639829933643341,0.19054020941257477,-0.31208276748657227,0.04353754222393036,-0.23588170111179352,-0.15663748979568481
forte_family.angela,-0.15014176070690155,-0.43351298570632935,-0.0708518698811531,-0.2148364633321762,-0.21242773532867432,-0.43742695450782776,-0.2600969970226288,0.20449323952198029,0.20190343260765076,-0.42044562101364136,-0.18931573629379272,-0.4273102283477783,0.44049328565597534,-0.2580333948135376,-0.46960189938545227,-0.20287233591079712,-0.24167229235172272,0.1539156436920166,-0.11536750197410583,-0.1550799012184143,0.4574732184410095,0.33545273542404175,0.04331512749195099,0.03265533596277237,0.47803109884262085,-0.41669708490371704,0.5136697888374329,-0.20366019010543823,0.47264978289604187,0.16959063708782196,-0.06791006028652191,-0.2744320333003998,0.14278540015220642,0.16016526520252228,-0.5457960367202759,0.2579258978366852,0.23040582239627838,0.2691454589366913,-0.016490263864398003,-0.13752669095993042
forte_family.ann,-0.241757333278656,-0.11639044433832169,0.1729639172554016,-0.18271608650684357,0.03944412246346474,-0.3919106721878052,-0.4397697150707245,0.0598476305603981,0.2738006114959717,-0.11086928844451904,-0.25233379006385803,-0.29555144906044006,-0.06888438761234283,-0.3385677635669708,-0.32568758726119995,-0.32208630442619324,-0.2523600161075592,-0.10847094655036926,-0.3861549198627472,-0.1994129717350006,0.41732990741729736,-0.04102033004164696,-0.318552702665329,-0.1596546471118927,0.30519482493400574,-0.3491676449775696,0.2975683808326721,-0.5197886824607849,0.1959117352962494,-0.48977935314178467,0.07161426544189453,0.1255641132593155,-0.08957460522651672,-0.11668670922517776,-0.025034114718437195,0.4049660265445709,-0.4140675961971283,0.3469039797782898,-0.33698713779449463,-0.24807581305503845
forte_family.art,-0.27855560183525085,-0.8603193759918213,0.3312397599220276,-0.38893577456474304,-0.054243434220552444,-0.0960625484585762,-0.043484412133693695,0.3626687228679657,0.2824056148529053,-0.03031420335173607,0.09214343875646591,-0.4869181513786316,-0.04608810693025589,0.008550248108804226,0.005058402195572853,-0.3992895185947418,-0.21727442741394043,0.06593779474496841,0.2875222861766815,0.08242390304803848,0.45978376269340515,0.2569999396800995,-0.3793066143989563,-0.10277102887630463,0.2884456217288971,-0.5150426626205444,0.013183440081775188,-0.04398583993315697,0.4370659291744232,-0.3337399959564209,-0.07595590502023697,0.2064938247203827,0.11736036092042923,-0.32106879353523254,-0.19432169198989868,0.33426687121391296,-0.12851294875144958,0.03177201375365257,-0.1900772750377655,-0.08447493612766266
forte_family.beatrice,-0.22228488326072693,-0.12184657156467438,0.2322891354560852,-0.3343747854232788,0.01625846140086651,-0.09642834216356277,-0.21374836564064026,0.11117557436227798,0.23218579590320587,-0.08970030397176743,-0.32477298378944397,-0.4427758753299713,0.06883072108030319,-0.26046979427337646,-0.1424800455570221,-0.2174084633588791,-0.1593295931816101,-0.1324632614850998,-0.425066202878952,-0.0252816304564476,0.45387670397758484,-0.20944523811340332,-0.3166655898094177,-0.18682469427585602,0.18963457643985748,-0.09204703569412231,0.33417195081710815,-0.05137340724468231,0.16365790367126465,-0.359251469373703,-0.18247486650943756,0.09941787272691727,-0.002466032514348626,0.18379688262939453,-0.046426765620708466,0.42042648792266846,-0.1441899985074997,-0.009027820080518723,-0.14642485976219177,-0.16769598424434662
forte_family.bob,-0.20094256103038788,-0.04003274440765381,0.2934495806694031,-0.12978634238243103,0.020278213545680046,-0.12959091365337372,-0.23624324798583984,0.3624633550643921,0.10285071283578873,0.016237696632742882,-0.4744601547718048,-0.32680174708366394,0.17069070041179657,-0.27228987216949463,0.05884931981563568,-0.2611011862754822,0.062498532235622406,0.28035810589790344,-0.33974263072013855,-0.15234307944774628,0.45681941509246826,-0.06355389952659607,-0.3512909710407257,-0.2984744906425476,0.2124784290790558,-0.07516170293092728,0.31186744570732117,-0.11433324962854385,0.3602699041366577,-0.028080934658646584,-0.11597519367933273,0.1915678232908249,-0.13230496644973755,0.19794344902038574,-0.3049565255641937,0.38676711916923523,-0.20258189737796783,-0.13144551217556,-0.3191407322883606,-0.06549569964408875
forte_family.callie,-0.2657158672809601,-0.09570427983999252,0.20650149881839752,-0.20610785484313965,0.2592027485370636,0.09295913577079773,-0.4223818778991699,0.13613471388816833,0.25414854288101196,-0.0313633531332016,-0.27523118257522583,-0.35681256651878357,0.07576404511928558,-0.3799408972263336,-0.46492159366607666,-0.46634992957115173,-0.1976514458656311,-0.09715479612350464,-0.38697150349617004,-0.20269711315631866,0.3977644145488739,-0.2463538497686386,-0.355587363243103,-0.050419725477695465,0.105857253074646,-0.3925940990447998,0.03099237009882927,-0.22680188715457916,0.11937171220779419,0.0005725163500756025,-0.07620427757501602,0.07179795950651169,0.08755727857351303,-0.14412465691566467,0.05483464151620865,0.4402027428150177,-0.1775968074798584,0.26076579093933105,-0.34620243310928345,-0.10623788833618164
forte_family.calvin,0.3456479609012604,-0.43473875522613525,0.17544899880886078,-0.08017192035913467,0.04240678995847702,-0.05695367604494095,-0.43630436062812805,0.24491682648658752,0.41736331582069397,0.19477549195289612,-0.3560316860675812,-0.16117319464683533,0.6059495210647583,-0.1185254231095314,0.004926908761262894,-0.17277054488658905,-0.254612535238266,-0.31094345450401306,-0.3226121962070465,-0.17307405173778534,0.4062521159648895,-0.01348831132054329,0.21489757299423218,-0.4992639124393463,0.20943500101566315,-0.2559327483177185,0.3810860514640808,-0.29844385385513306,0.1742696315050125,-0.45868611335754395,0.1426106095314026,-0.30108964443206787,-0.1132977232336998,-0.16698706150054932,-0.16649681329727173,0.27093610167503357,-0.20588906109333038,0.35283225774765015,-0.3925158679485321,-0.06388694047927856
forte_family.carl,-0.31782248616218567,0.050256237387657166,0.3096555471420288,-0.2067747563123703,0.19031894207000732,0.04522912576794624,-0.44013264775276184,0.28701919317245483,0.1843443363904953,-0.6894460916519165,-0.37807297706604004,-0.3116503953933716,0.014176486060023308,-0.3841683566570282,-0.273610383272171,-0.5651001334190369,-0.23740851879119873,-0.1669396013021469,-0.24419979751110077,-0.15885087847709656,0.4573043882846832,-0.18117931485176086,-0.276320219039917,-0.11431701481342316,0.17781846225261688,-0.31860706210136414,-0.015842925757169724,-0.3393523693084717,0.33410295844078064,-0.14520417153835297,-0.11982022970914841,0.18117517232894897,0.08834958076477051,-0.1859317272901535,0.18631336092948914,0.44905710220336914,-0.22662368416786194,0.09999988228082657,-0.3255510628223419,0.009668901562690735
forte_family.carlos,-0.1262907236814499,-0.3834497928619385,0.17464382946491241,0.023865269497036934,0.054916687309741974,-0.31642353534698486,-0.13289348781108856,0.2479681521654129,-0.05661851167678833,-0.2820456326007843,-0.11665210127830505,-0.3541543781757355,0.20864231884479523,-0.3074035942554474,-0.09107954055070877,-0.5751373767852783,-0.17748795449733734,0.033581290394067764,-0.20560592412948608,-0.254451721906662,0.4744994640350342,-0.1897900104522705,0.08062003552913666,0.25891682505607605,0.3609559237957001,-0.22187817096710205,0.31553053855895996,-0.36032649874687195,0.22947214543819427,-0.130320206284523,-0.1190408393740654,0.307858943939209,-0.1846396028995514,-0.20220360159873962,-0.41523391008377075,0.17252840101718903,-0.1520930379629135,0.41964367032051086,-0.6398885846138,-0.09196170419454575
forte_family.christy,0.16498138010501862,-0.3271135091781616,0.17531149089336395,-0.22331476211547852,-0.2180701643228531,-0.05055983364582062,-0.24632050096988678,0.15092727541923523,0.2915077805519104,0.22376464307308197,-0.3229246735572815,-0.18852508068084717,-0.14999035000801086,-0.15323619544506073,-0.1242382675409317,-0.44141218066215515,-0.1063813790678978,0.13872547447681427,-0.25016772747039795,-0.3803052008152008,0.35630521178245544,-0.12226840853691101,0.17636266350746155,0.1752697378396988,0.39359670877456665,-0.23871338367462158,0.26484745740890503,-0.382477730512619,0.07037758827209473,-0.34889376163482666,0.15111267566680908,-0.16873608529567719,-0.4498627185821533,-0.0674223005771637,-0.08231894671916962,0.3003469407558441,-0.19208510220050812,0.2628096640110016,-0.393950879573822,-0.15703155100345612
forte_family.cornelia,-0.23122265934944153,-0.33242517709732056,0.2391430139541626,-0.28071343898773193,0.05300527811050415,-0.13360358774662018,-0.6427960395812988,0.1587861329317093,0.3223361372947693,-0.10733362287282944,-0.058823008090257645,-0.38994070887565613,0.2438146471977234,-0.24744710326194763,-0.34605005383491516,0.11392294615507126,0.16203078627586365,0.06539901345968246,-0.2869436740875244,-0.6419062614440918,-0.07858888804912567,0.11854769289493561,0.049582965672016144,-0.028989292681217194,0.3694886565208435,-0.35857218503952026,0.016184315085411072,-0.17837752401828766,0.07793382555246353,-0.13731935620307922,-0.34746289253234863,-0.12663541734218597,0.2139887511730194,-0.4409101605415344,-0.1799059510231018,0.013468475081026554,-0.4634203314781189,0.08220390975475311,-0.47513049840927124,-0.16612131893634796
forte_family.david,-0.32319191098213196,-0.320302277803421,0.32352739572525024,-0.012729233130812645,0.2295934408903122,0.03153238818049431,-0.6029224395751953,0.3953903615474701,0.04959864541888237,-0.07691211253404617,-0.21786393225193024,-0.40560680627822876,0.4268448054790497,-0.4762422740459442,-0.39168402552604675,-0.3951147794723511,0.16116581857204437,0.02833775244653225,-0.06229199841618538,-0.1459229737520218,0.375507652759552,-0.18230073153972626,-0.3728443384170532,-0.4536546468734741,0.3336237668991089,0.09378590434789658,-0.11303504556417465,-0.06465118378400803,0.3774817883968353,0.013088757172226906,-0.22946375608444214,-0.15997637808322906,0.061700236052274704,-0.11081981658935547,-0.1623193472623825,-0.26165416836738586,-0.040220651775598526,0.2882174253463745,0.08377913385629654,0.18213680386543274
forte_family.deanna,-0.21672019362449646,-0.3510662019252777,0.41729992628097534,0.035927265882492065,0.3526626229286194,-0.15412920713424683,-0.3642268180847168,0.0856793224811554,0.1578599065542221,0.056083641946315765,-0.39449626207351685,-0.3273068368434906,-0.07879158854484558,-0.45542654395103455,-0.3941049873828888,-0.4221920371055603,0.1170060858130455,0.09448022395372391,-0.25159674882888794,-0.18776972591876984,0.4365510940551758,-0.18343105912208557,-0.23636719584465027,-0.16357630491256714,0.15258945524692535,-0.16148385405540466,0.289995014667511,-0.09263952821493149,0.10696173459291458,-0.29515260457992554,0.06784864515066147,0.18998564779758453,-0.19312062859535217,-0.26479506492614746,-0.1838279813528061,-0.05676288157701492,-0.35722142457962036,0.20233768224716187,-0.29146087169647217,-0.07927606999874115
forte_family.elisa,-0.23792466521263123,-0.26457393169403076,0.3032516837120056,-0.2666839361190796,-0.0038718143478035927,-0.029898541048169136,-0.38819098472595215,0.033291157335042953,0.3445532023906708,-0.23593443632125854,-0.3508060872554779,-0.3823945224285126,-0.15927408635616302,-0.09698725491762161,-0.5998635292053223,-0.11001983284950256,0.15725009143352509,0.050341732800006866,-0.07934548705816269,-0.4644019305706024,0.3012804090976715,0.1210717260837555,-0.39602920413017273,0.06712305545806885,0.36633387207984924,0.05612365901470184,0.0005462369881570339,-0.15397287905216217,0.029684145003557205,-0.031309325248003006,-0.24970658123493195,-0.18845146894454956,-0.3329280614852905,-0.11431105434894562,-0.11312214285135269,-0.19022472202777863,-0.05579410493373871,0.16449327766895294,0.02371714450418949,-0.2531108856201172
forte_family.eric,-0.14695493876934052,-0.644396185874939,0.33876585960388184,-0.31489256024360657,0.015420830808579922,0.09171648323535919,-0.5042940974235535,0.21769970655441284,0.03269006684422493,-0.24131597578525543,-0.27045708894729614,-0.2721901834011078,0.06512435525655746,0.046904414892196655,-0.6109448075294495,-0.15606732666492462,-0.45945125818252563,-0.051565516740083694,-0.3713471293449402,-0.1122441440820694,0.47907742857933044,0.4593213200569153,-0.33217373490333557,0.09775661677122116,0.266630083322525,-0.4040808081626892,0.011437858454883099,-0.007378857117146254,-0.2865389585494995,-0.06825734674930573,-0.030610881745815277,-0.2089056372642517,-0.04195110499858856,-0.02732529491186142,0.032506756484508514,-0.16238056123256683,-0.2108064740896225,0.37507176399230957,-0.24291910231113434,-0.19141885638237
forte_family.f12,0.051315829157829285,-0.29427698254585266,-0.08828924596309662,-0.1529640108346939,-0.03720252960920334,-0.10757748037576675,0.21300290524959564,0.34147289395332336,0.27050110697746277,0.27630653977394104,-0.31367650628089905,-0.2536875009536743,-0.04031207412481308,-0.33028990030288696,-0.22057633101940155,-0.3137066066265106,0.18393035233020782,-0.2778760492801666,-0.3458305597305298,-0.14779449999332428,0.16242319345474243,0.359658420085907,-0.5163994431495667,-0.2491675466299057,0.27706247568130493,-0.3309703469276428,0.39913517236709595,-0.4937506914138794,-0.11976086348295212,-0.17323094606399536,-0.1833701878786087,0.24331456422805786,0.2944663465023041,-0.3676416575908661,-0.24719169735908508,0.13119377195835114,-0.05086871609091759,0.07412745803594589,-0.4861525595188141,-0.06979437917470932
forte_family.f14,0.5559874176979065,-0.3866897523403168,0.2689453065395355,-0.3969669044017792,0.14217700064182281,-0.34825488924980164,0.02259751595556736,0.2542172372341156,0.3150182068347931,-0.2815656065940857,-0.13862937688827515,-0.3671470284461975,0.07338575273752213,-0.39385148882865906,-0.3742324113845825,0.084060899913311,-0.18641851842403412,-0.37288567423820496,-0.006657010409981012,0.055744193494319916,0.1590990275144577,0.6064325571060181,-0.4438289701938629,-0.23478148877620697,0.2872268259525299,-0.18202747404575348,0.40971460938453674,-0.22583132982254028,0.3659232258796692,0.16837738454341888,-0.12165439128875732,0.24807949364185333,-0.03595677390694618,-0.3637247383594513,-0.15893058478832245,-0.08323536068201065,-0.04450495168566704,0.305065393447876,-0.49769356846809387,0.03172428905963898
forte_family.f19,0.45066511631011963,-0.1424027383327484,-0.10971462726593018,-0.07231457531452179,-0.1091281920671463,0.11633837968111038,0.13163727521896362,0.2434244602918625,0.36300456523895264,-0.25188422203063965,-0.437155544757843,-0.43167445063591003,0.043789371848106384,-0.39556798338890076,0.07899913191795349,-0.3934462368488312,-0.3571338355541229,-0.21532271802425385,0.16062016785144806,-0.1134762093424797,0.42487460374832153,-0.06635579466819763,-0.5417969822883606,-0.23471035063266754,0.44975996017456055,-0.1053028330206871,0.02652106247842312,-0.406684011220932,-0.04901735484600067,-0.22618122398853302,-0.19495366513729095,0.19785119593143463,-0.08087226003408432,-0.32444047927856445,-0.6065133810043335,0.06709234416484833,-0.2593824863433838,0.4348907470703125,0.09241890162229538,-0.13684296607971191
forte_family.f2,-0.05914617329835892,-0.26322850584983826,0.08392365276813507,-0.39461588859558105,-0.425648957490921,-0.11676163971424103,-0.20924775302410126,0.15790504217147827,0.40186193585395813,-0.10479241609573364,-0.28937724232673645,-0.22670675814151764,0.03802065551280975,-0.516435980796814,-0.004394973628222942,-0.2832530736923218,-0.34998685121536255,0.06067341938614845,-0.44987019896507263,-0.19240672886371613,0.15130217373371124,0.012365407310426235,-0.28643184900283813,-0.49205589294433594,0.38745659589767456,0.24513940513134003,0.49241122603416443,-0.24641075730323792,0.3807075619697571,-0.18646344542503357,-0.13107192516326904,0.18053774535655975,-0.5112603902816772,-0.37576472759246826,-0.16047579050064087,0.36482495069503784,-0.06752493977546692,0.381732314825058,-0.11501776427030563,0.06235038861632347
forte_family.f20,0.3474196195602417,-0.2606346011161804,-0.14187723398208618,0.0500081442296505,0.021052304655313492,0.08606638759374619,0.17467211186885834,0.184078186750412,0.2890556752681732,-0.18948021531105042,-0.3831072449684143,-0.3752363622188568,0.00559237552806735,-0.45814213156700134,-0.3230704367160797,-0.38140544295310974,-0.29279276728630066,0.2550398111343384,0.1252022683620453,-0.49347367882728577,0.4320683479309082,0.18603725731372833,-0.57928866147995,-0.23910602927207947,0.43224114179611206,-0.12744908034801483,0.05614692345261574,-0.192796990275383,-0.07392757385969162,-0.30392107367515564,-0.2270854413509369,0.22870312631130219,0.19606898725032806,-0.42019280791282654,-0.014951813034713268,0.09208837896585464,-0.2509607970714569,0.0069312588311731815,0.05263194441795349,0.2584708631038666
forte_family.f21,-0.4115520417690277,-0.27362850308418274,-0.05637427419424057,0.03915712982416153,0.11389092355966568,0.05818343535065651,-0.3711589574813843,0.25132787227630615,0.40764880180358887,0.14882467687129974,-0.28667354583740234,-0.029777051880955696,0.08095140755176544,-0.19060400128364563,-0.22726157307624817,-0.19410495460033417,-0.4017367660999298,-0.06471043825149536,-0.11519061774015427,-0.27723178267478943,0.17454704642295837,0.07540316879749298,-0.64075767993927,-0.34791454672813416,0.2734522521495819,-0.0718870609998703,0.2574571967124939,-0.16949506103992462,0.15047068893909454,0.19439949095249176,-0.27344396710395813,0.38697177171707153,0.026927737519145012,-0.14355899393558502,-0.2351551055908203,0.34702539443969727,0.2021101415157318,0.6005507707595825,-0.0847938060760498,0.26010894775390625
forte_family.f22,-0.26233530044555664,-0.37162521481513977,-0.11354761570692062,-0.4430053234100342,0.16399569809436798,-0.020466826856136322,-0.30384793877601624,0.31393301486968994,0.3662698268890381,0.09866674244403839,-0.28417930006980896,-0.009379328228533268,0.30404189229011536,-0.14496572315692902,-0.3383786380290985,-0.20663881301879883,-0.3260330557823181,0.0925789326429367,-0.16420841217041016,-0.4178171753883362,0.1578848659992218,0.20392394065856934,-0.6776499152183533,-0.05939744412899017,0.30462929606437683,-0.08552288264036179,0.4806540310382843,-0.3406800925731659,0.11841484904289246,0.24353639781475067,-0.23373334109783173,0.4082658886909485,-0.28778839111328125,-0.16660450398921967,-0.19563353061676025,0.23122593760490417,0.18442805111408234,-0.15249201655387878,-0.08457298576831818,-0.4148334562778473
forte_family.f23,0.022461729124188423,-0.34624284505844116,0.025689678266644478,-0.06360518932342529,-0.2997259199619293,0.2690330445766449,-0.5920897722244263,0.42194750905036926,0.23337920010089874,-0.29760992527008057,-0.26628440618515015,0.05117814242839813,0.4542999267578125,-0.17084230482578278,-0.18742600083351135,-0.23591528832912445,-0.13697944581508636,0.4510062634944916,0.2854367792606354,-0.2709514796733856,0.5093343257904053,0.45782598853111267,-0.43499717116355896,-0.20421361923217773,0.09397652000188828,-0.42007094621658325,0.3563680648803711,-0.37918415665626526,0.29976725578308105,-0.08358759433031082,-0.2947486937046051,-0.38599124550819397,0.17282117903232574,-0.44227561354637146,-0.17041653394699097,0.2669963836669922,-0.13933193683624268,0.25955843925476074,-0.3619329333305359,-0.29248178005218506
forte_family.f25,-0.01030108891427517,-0.2593817412853241,0.022745581343770027,-0.038956545293331146,-0.2934064567089081,0.23005986213684082,-0.461917906999588,0.17824991047382355,0.3289650082588196,-0.29392901062965393,-0.22889256477355957,-0.005988101940602064,0.0694509744644165,-0.15257662534713745,-0.12763075530529022,-0.24369242787361145,-0.20634646713733673,-0.38360315561294556,0.263785183429718,-0.1859419345855713,0.43722084164619446,-0.06732921302318573,-0.4089539647102356,-0.23520220816135406,0.11305458098649979,-0.38300636410713196,0.33725449442863464,-0.13136525452136993,0.3840123414993286,-0.07593325525522232,-0.2375440001487732,-0.37672555446624756,-0.3287512958049774,-0.4938214421272278,-0.7123715877532959,0.181101456284523,-0.18200995028018951,0.24796603620052338,-0.33824923634529114,-0.2596340775489807
forte_family.f26,-0.2090044617652893,-0.09229367226362228,-0.3092217445373535,-0.12796224653720856,0.08910340070724487,-0.09635619819164276,-0.2570759356021881,0.2085159569978714,0.4109072983264923,-0.10713247209787369,-0.2500968277454376,0.13405054807662964,0.48771384358406067,-0.30414465069770813,-0.025261908769607544,0.08203297108411789,-0.2918276786804199,-0.31716638803482056,0.12808851897716522,-0.2679390609264374,0.19682708382606506,0.1688869148492813,-0.2182668298482895,-0.31999891996383667,0.38122880458831787,-0.3413320481777191,0.43465375900268555,-0.26419979333877563,0.26462143659591675,-0.3045501410961151,-0.25125014781951904,0.22356148064136505,-0.3298105001449585,-0.19879141449928284,-0.13068297505378723,-0.12509411573410034,-0.24089044332504272,0.4635866582393646,-0.5700300335884094,0.06433767080307007
forte_family.f28,-0.2076273262500763,-0.3597297966480255,-0.30619752407073975,-0.1840120255947113,0.06414341926574707,-0.154168501496315,-0.25497570633888245,0.17896585166454315,0.38452744483947754,-0.08849244564771652,-0.3399040699005127,0.10478515923023224,-0.32308128476142883,-0.2845785915851593,-0.02640475146472454,0.13633383810520172,-0.37425774335861206,0.23065409064292908,0.07402648031711578,-0.5783885717391968,0.21409206092357635,0.04522539675235748,-0.19063839316368103,-0.44827255606651306,0.33011123538017273,-0.2705617845058441,0.5796835422515869,-0.24858692288398743,0.32550257444381714,-0.2890194058418274,-0.26759183406829834,0.2204529047012329,-0.15786905586719513,-0.27590957283973694,-0.15880654752254486,-0.09280873835086823,-0.2437044382095337,0.02567070536315441,-0.5907397270202637,-0.149353489279747
forte_family.f8,-0.17987871170043945,-0.39980295300483704,-0.15294769406318665,-0.002924325643107295,-0.076805479824543,-0.11160038411617279,0.1537996083498001,0.4247484505176544,0.29712527990341187,-0.2581788897514343,0.0796782448887825,-0.2382851392030716,0.11841809749603271,-0.596218466758728,-0.13221685588359833,-0.28102585673332214,-0.2753036618232727,0.3811657428741455,-0.26187950372695923,-0.1281721293926239,0.5106301307678223,0.0017877854406833649,-0.004883869551122189,-0.3356543779373169,0.06936515867710114,-0.43857887387275696,0.38015127182006836,-0.5048952698707581,0.30655452609062195,-0.35858890414237976,-0.26096153259277344,0.5577763319015503,0.06019703671336174,-0.2712799906730652,-0.27580803632736206,0.1594592183828354,-0.26543933153152466,0.49879223108291626,0.03952062875032425,-0.008519678376615047
forte_family.fannie,-0.11495225876569748,-0.20769678056240082,0.4277108609676361,0.03873061016201973,-0.11192125827074051,0.13877730071544647,-0.8022546768188477,0.037433844059705734,0.14784465730190277,-0.1737983077764511,-0.36775052547454834,-0.18902648985385895,0.16288378834724426,-0.07262249290943146,-0.23913966119289398,-0.509624719619751,-0.5636985301971436,0.07085707783699036,-0.33216771483421326,-0.4263249337673187,0.3990492522716522,0.017114415764808655,-0.16597174108028412,-0.2900374233722687,0.22718213498592377,-0.389884352684021,0.13974381983280182,-0.09696656465530396,-0.306337833404541,-0.12659886479377747,-0.041979383677244186,-0.19330845773220062,-0.2139277160167694,0.022328658029437065,-0.08199552446603775,-0.12458973377943039,-0.27289146184921265,-0.01033475436270237,-0.2888777256011963,0.3192383646965027
forte_family.fred,-0.3425584137439728,-0.47852465510368347,0.40087735652923584,-0.3204394578933716,-0.09973037987947464,-0.037233706563711166,-0.7786046862602234,0.27686840295791626,-0.2120007872581482,-0.2891770899295807,-0.4700644314289093,-0.20234349370002747,0.05642106011509895,-0.254838764667511,-0.0847269594669342,-0.5358363389968872,-0.545920729637146,0.41615167260169983,-0.278687983751297,-0.13155530393123627,0.47037816047668457,0.0744231715798378,-0.02413204498589039,-0.3076190948486328,0.2970423996448517,-0.31620538234710693,0.14964012801647186,-0.04716264083981514,0.14735135436058044,-0.1881796270608902,-0.13458138704299927,0.3243112564086914,-0.17170464992523193,-0.2201061099767685,-0.1774352788925171,0.07544482499361038,-0.28050777316093445,0.18095724284648895,-0.3085370659828186,-0.18668635189533234
forte_family.frederick,-0.22046707570552826,-0.6261511445045471,0.02171567641198635,-0.06931289285421371,-0.005476814229041338,-0.38621973991394043,0.019417399540543556,0.1833571046590805,0.026413334533572197,-0.20960582792758942,-0.611179530620575,-0.29582589864730835,0.16822107136249542,-0.009693630039691925,-0.28246182203292847,-0.029398201033473015,-0.031378261744976044,-0.06185657158493996,0.23300014436244965,-0.19480979442596436,0.007995887659490108,0.37592214345932007,-0.45682457089424133,-0.40864214301109314,0.2957993447780609,-0.10423177480697632,0.49941205978393555,-0.28006404638290405,0.29966071248054504,-0.11619885265827179,0.11190317571163177,0.20844517648220062,-0.05199132487177849,0.023559624329209328,-0.2229386568069458,0.2918764352798462,-0.41652023792266846,0.5257391333580017,-0.2580047845840454,-0.07447998970746994
forte_family.gail,-0.13928236067295074,0.016175387427210808,0.255248486995697,-0.14087927341461182,-0.5919257402420044,0.12181826680898666,-0.04133041948080063,0.05952003225684166,0.15607129037380219,-0.1726415455341339,-0.23601730167865753,-0.25560060143470764,0.07437388598918915,-0.2066117823123932,-0.28753194212913513,-0.22022637724876404,-0.446515828371048,-0.035654209554195404,-0.3041195571422577,-0.10442912578582764,0.41530150175094604,-0.01381975132972002,-0.30503156781196594,0.01684970036149025,0.3665676414966583,-0.4106858968734741,0.7853164672851562,-0.12162762880325317,-0.23973870277404785,-0.2660181522369385,0.017849821597337723,-0.21241451799869537,-0.04377821460366249,0.08761455118656158,-0.2481459528207779,-0.25813329219818115,-0.12377087771892548,0.4220752418041229,-0.2961792051792145,-0.1714179366827011
forte_family.george,-0.2623881697654724,-0.1003108024597168,0.31442296504974365,-0.254263699054718,-0.0713922381401062,-0.18463186919689178,-0.15992628037929535,0.48713308572769165,-0.07456213235855103,0.08380131423473358,-0.41707202792167664,-0.11090307682752609,0.18874739110469818,-0.4993011951446533,-0.665727972984314,-0.12299687415361404,-0.1764625608921051,-0.3217153549194336,-0.13938046991825104,-0.17747148871421814,0.4043436348438263,0.6276442408561707,-0.321670264005661,-0.35855749249458313,0.36840948462486267,-0.2906334400177002,0.21721738576889038,-0.15883120894432068,0.11013362556695938,-0.06999646872282028,-0.3393503725528717,0.16285297274589539,-0.14319872856140137,-0.30415621399879456,-0.4240480959415436,0.14091309905052185,-0.28944432735443115,0.5366974472999573,-0.0664980560541153,-0.1343483179807663
forte_family.harry,-0.12638768553733826,-0.1624894142150879,0.22118674218654633,-0.3210536241531372,-0.047423478215932846,0.02667207643389702,0.0201839841902256,0.4581959843635559,0.08109342306852341,-0.2788635790348053,-0.19503140449523926,-0.27824947237968445,0.040339358150959015,-0.04077626392245293,-0.28572526574134827,-0.39421218633651733,-0.47540295124053955,0.27965524792671204,-0.3476972281932831,-0.04915623739361763,0.47737377882003784,0.028466328978538513,-0.4149852991104126,-0.48802486062049866,0.3492836654186249,-0.44790372252464294,0.19682596623897552,-0.3834024965763092,-0.25838661193847656,0.07631469517946243,-0.045240141451358795,-0.19982340931892395,-0.07476484775543213,0.17235083878040314,-0.27349424362182617,-0.09220142662525177,-0.2862001359462738,-0.09211400896310806,-0.2570182979106903,-0.2573302984237671
forte_family.helen,-0.25503236055374146,-0.19580771028995514,0.1469907909631729,-0.4010995626449585,0.058731772005558014,-0.20805998146533966,-0.027200687676668167,0.23714816570281982,0.512732744216919,0.07620130479335785,-0.3506409823894501,-0.3635083734989166,-0.061657097190618515,-0.17386606335639954,-0.23732103407382965,-0.2056303471326828,-0.46501946449279785,-0.13757038116455078,-0.40782129764556885,-0.29801949858665466,0.37706422805786133,-0.147941455245018,-0.14407016336917877,-0.18387112021446228,0.19446146488189697,-0.5984853506088257,0.263671875,-0.2987777888774872,-0.041789017617702484,-0.0630393922328949,0.11563056707382202,0.147973895072937,-0.14499662816524506,0.0043677277863025665,-0.20373474061489105,0.03746407851576805,-0.2909591495990753,-0.055920593440532684,0.01840347796678543,-0.39818280935287476
forte_family.jack,0.3659428656101227,-0.05521116405725479,0.1020611822605133,-0.06849704682826996,0.22788457572460175,-0.17103490233421326,-0.36920833587646484,0.20145824551582336,0.29036933183670044,0.20278410613536835,-0.31643161177635193,-0.16025833785533905,-0.059488650411367416,-0.05570046976208687,-0.4600923955440521,-0.21546603739261627,-0.2111280858516693,0.15951202809810638,-0.32112371921539307,-0.2923865020275116,0.3722198009490967,0.1194080039858818,0.17834043502807617,-0.2757806181907654,0.016067806631326675,-0.18107976019382477,0.36019667983055115,-0.15356510877609253,0.33823755383491516,-0.41298189759254456,0.12062449008226395,-0.2249472588300705,0.32408004999160767,-0.23458701372146606,-0.562311589717865,0.1974332183599472,-0.26304420828819275,0.03044266253709793,-0.343624472618103,0.005445198155939579
forte_family.james,-0.17539779841899872,-0.5954741835594177,0.6134089827537537,-0.4597878158092499,0.10252732783555984,-0.30046358704566956,-0.3377969264984131,0.2851341664791107,0.003979769069701433,-0.5793758630752563,-0.20614482462406158,-0.2537471354007721,-0.026500096544623375,-0.2910861670970917,0.22704538702964783,-0.05417221039533615,-0.34287187457084656,-0.5047485828399658,-0.09879972040653229,-0.21906869113445282,0.5058436393737793,-0.010415378026664257,0.028700925409793854,-0.1419936716556549,0.23690667748451233,-0.23118449747562408,0.3084724545478821,-0.391812264919281,0.20365683734416962,-0.18308350443840027,-0.3499833047389984,0.2842768728733063,-0.0803539901971817,-0.20625634491443634,-0.28686103224754333,0.07207896560430527,-0.06580790132284164,-0.08435352146625519,-0.37272727489471436,-0.2442190796136856
forte_family.jane,-0.13889172673225403,-0.13902142643928528,0.1198238804936409,-0.15000861883163452,0.2574426531791687,-0.36093443632125854,-0.12171269208192825,0.09423430263996124,0.12816037237644196,-0.26339033246040344,-0.5550242066383362,-0.23423901200294495,0.44359108805656433,0.062212105840444565,-0.23407478630542755,-0.05500058829784393,-0.042985256761312485,-0.141991525888443,0.15304677188396454,-0.4681459069252014,0.08651083707809448,-0.11477473378181458,-0.4114992022514343,0.020012905821204185,0.011945091187953949,-0.09074106812477112,0.395527184009552,-0.22057560086250305,0.14370951056480408,-0.13742713630199432,0.1020260751247406,0.0693797841668129,-0.15157628059387207,-0.16458864510059357,-0.2835524082183838,0.11648619174957275,-0.3480006456375122,-0.08513372391462326,-0.24712955951690674,-0.15414837002754211
forte_family.janet,0.011240853928029537,-0.3546305298805237,0.5550704002380371,-0.29382216930389404,-0.22533562779426575,0.014721942134201527,-0.3131241500377655,0.09827279299497604,0.36678147315979004,-0.46267297863960266,-0.18850813806056976,-0.4457468092441559,0.017838286235928535,-0.1804337203502655,-0.14908549189567566,0.04833250492811203,-0.02694230154156685,-0.5320104360580444,-0.15598733723163605,-0.25641879439353943,0.20597267150878906,-0.022496556863188744,0.029573071748018265,-0.09528987854719162,0.3481804430484772,-0.11248241364955902,0.28122442960739136,-0.31082823872566223,0.00514242984354496,0.03679587319493294,0.10292316228151321,0.2852017879486084,-0.023904666304588318,0.08298751711845398,0.06970567256212234,0.25392910838127136,-0.32315972447395325,0.37094375491142273,-0.09714838117361069,-0.13651105761528015
forte_family.jonas,-0.15121357142925262,-0.19079186022281647,0.4375172257423401,-0.1321588158607483,0.07854681462049484,0.1126013919711113,-0.26767319440841675,0.5011305809020996,0.2452852725982666,-0.17350104451179504,-0.29395902156829834,0.041877154260873795,0.2157236486673355,-0.6580636501312256,-0.4929485023021698,0.058242689818143845,-0.5625630617141724,0.31780555844306946,-0.2991909384727478,-0.005062072537839413,0.5010464191436768,0.19498498737812042,-0.028749613091349602,-0.2687162458896637,0.10177493840456009,-0.3304077982902527,-0.022002940997481346,-0.4712904393672943,0.3731176257133484,-0.13117116689682007,-0.26925423741340637,0.092669777572155,0.2986048758029938,-0.24185851216316223,-0.6670342683792114,0.1879182606935501,0.22101721167564392,-0.002320153173059225,-0.44443339109420776,0.1515336036682129
forte_family.kari,-0.3412339389324188,-0.23085713386535645,0.2787877917289734,0.040049225091934204,-0.06856508553028107,-0.363331139087677,-0.25484901666641235,0.1967676430940628,0.42484962940216064,-0.03769030421972275,-0.3025780916213989,-0.4016629457473755,0.35238492488861084,-0.4302419126033783,-0.30485400557518005,-0.43510502576828003,-0.3225654363632202,-0.14723119139671326,-0.25033825635910034,-0.2319401353597641,0.4789198637008667,-0.036219000816345215,-0.3220769762992859,0.10032039880752563,0.17879028618335724,-0.1112140491604805,0.3457479476928711,-0.16265864670276642,0.2668763995170593,-0.1182781383395195,-0.14075571298599243,-0.05651154741644859,-0.4191814363002777,0.07382755726575851,-0.004823068156838417,-0.187722310423851,-0.2711629271507263,0.21410194039344788,-0.3231786787509918,-0.2862607538700104
forte_family.karl,-0.15283288061618805,-0.23870281875133514,0.4826619029045105,0.30519595742225647,0.006717166397720575,-0.3218163251876831,-0.13155940175056458,0.48153170943260193,0.20225225389003754,0.15482789278030396,-0.3618801534175873,0.09668537974357605,-0.2295696884393692,-0.39211195707321167,-0.1223936602473259,-0.12782202661037445,-0.4923502802848816,-0.17115315794944763,-0.17062745988368988,-0.24966762959957123,0.498675674200058,0.26561248302459717,-0.36512187123298645,-0.2312222570180893,0.05801697075366974,-0.3192707300186157,0.10763111710548401,-0.5751299262046814,0.18578539788722992,-0.5064735412597656,-0.1627415418624878,0.037641797214746475,0.05308065935969353,-0.13847486674785614,-0.13212977349758148,-0.28541702032089233,-0.27157485485076904,0.14894720911979675,0.24424482882022858,-0.0356673039495945
forte_family.leon,-0.3101668655872345,-0.08038637787103653,0.3399564027786255,-0.25832587480545044,0.3665558993816376,-0.08628847450017929,-0.33447110652923584,0.15536227822303772,0.4507737457752228,-0.006940878927707672,-0.35858723521232605,-0.41261953115463257,-0.3056465983390808,-0.438493549823761,-0.5537161827087402,-0.3875659108161926,-0.37653648853302,0.23513177037239075,-0.19195768237113953,-0.14532117545604706,0.49882006645202637,0.11490201950073242,-0.28125590085983276,-0.21977710723876953,-0.15781570971012115,-0.5072608590126038,0.264512836933136,-0.021911511197686195,0.33381643891334534,0.08498398214578629,-0.20532962679862976,0.35104724764823914,-0.13135318458080292,-0.20601287484169006,-0.061867084354162216,-0.05186348408460617,-0.27702394127845764,-0.031042778864502907,-0.20909585058689117,-0.5171557664871216
forte_family.lorrie,-0.22505241632461548,-0.03211718425154686,0.3343159556388855,-0.17038346827030182,0.35970765352249146,-0.12169047445058823,-0.1889161616563797,0.000948251923546195,0.46294060349464417,0.1240975484251976,-0.35658857226371765,0.1238999217748642,0.6556646823883057,-0.24977488815784454,-0.4408785104751587,-0.16505038738250732,-0.46169328689575195,0.004837104119360447,-0.19681097567081451,-0.48829275369644165,0.4189280569553375,-0.04122257977724075,-0.3794081509113312,-0.12422836571931839,-0.1697310507297516,-0.44372618198394775,0.0833592638373375,-0.054041896015405655,0.26497912406921387,-0.30697891116142273,-0.181899756193161,-0.038134582340717316,-0.05810727924108505,-0.25623491406440735,-0.14061975479125977,-0.23193034529685974,-0.2779552638530731,0.0012903984170407057,0.24278524518013,-0.05957202985882759
forte_family.m1,-0.06634001433849335,-0.2505228817462921,0.08574332296848297,0.1317833811044693,-0.4709518849849701,-0.08210889250040054,-0.30737414956092834,0.29315051436424255,0.36837127804756165,-0.1620154231786728,-0.3505554497241974,-0.24154479801654816,0.2540067434310913,-0.4733089506626129,-0.4804953932762146,-0.343257874250412,-0.3358096480369568,0.019648943096399307,-0.4697028696537018,-0.41415661573410034,0.20399513840675354,-0.006967240944504738,-0.27909138798713684,-0.16203592717647552,0.3730168044567108,0.2015729695558548,0.34695714712142944,-0.23541899025440216,0.38406699895858765,-0.18555694818496704,-0.12920770049095154,0.10705583542585373,0.2610037326812744,-0.30435532331466675,-0.4135548174381256,0.3540935814380646,-0.06990034133195877,0.042151350528001785,-0.05461794510483742,-0.15044617652893066
forte_family.m10,-0.17741736769676208,-0.3755669593811035,-0.1513780653476715,-0.34130537509918213,-0.12708653509616852,-0.09915946424007416,0.1634916216135025,0.16271840035915375,0.29646626114845276,-0.26599276065826416,0.05929769575595856,-0.22360312938690186,0.32135212421417236,-0.5797786116600037,-0.30750054121017456,-0.244365394115448,-0.39697203040122986,-0.3038300573825836,-0.22134162485599518,-0.16840797662734985,0.46003881096839905,0.19642680883407593,-0.011448143050074577,-0.5162339210510254,0.12451810389757156,-0.4199427366256714,0.39223018288612366,0.0036208839155733585,0.25972697138786316,-0.33246996998786926,-0.2298838347196579,0.532492995262146,-0.4961739778518677,-0.2690541744232178,-0.20962174236774445,0.1593075543642044,-0.2791244089603424,0.1348942369222641,0.08329123258590698,0.16060909628868103
forte_family.m11,0.050698667764663696,-0.14271673560142517,-0.10236521810293198,-0.2656368017196655,0.020686984062194824,-0.0806531310081482,0.238252192735672,0.22751827538013458,0.3094038665294647,0.29675325751304626,-0.3141360878944397,-0.2616126239299774,0.31024226546287537,-0.4549783170223236,-0.3107140362262726,-0.22549566626548767,0.2413616180419922,0.43539121747016907,-0.38069456815719604,-0.3494523763656616,0.17013490200042725,-0.08465182036161423,-0.5539892911911011,-0.33514055609703064,0.3710518181324005,-0.3387150764465332,0.45834457874298096,-0.16280171275138855,-0.16047030687332153,-0.16146235167980194,-0.30116498470306396,0.1551237553358078,-0.5345516800880432,-0.4354114830493927,-0.1908884048461914,0.16010229289531708,-0.07387100160121918,0.5660659074783325,-0.31566911935806274,0.11358728259801865
forte_family.m13,0.5708692669868469,-0.07417981326580048,0.3081147372722626,-0.08008076250553131,0.1944756954908371,-0.4215906262397766,-0.016236651688814163,0.1807616800069809,0.5328354835510254,-0.1505786031484604,-0.24388772249221802,-0.30820485949516296,0.29785802960395813,-0.406296044588089,-0.23102222383022308,0.14830732345581055,-0.18624922633171082,-0.059141095727682114,-0.02932487055659294,-0.3458240032196045,0.06895734369754791,-0.04798262566328049,-0.33590900897979736,-0.34725260734558105,0.2998400926589966,-0.1480925977230072,0.4348241686820984,-0.1251671016216278,0.30374664068222046,0.13343766331672668,-0.23746944963932037,0.2230437844991684,-0.23559284210205078,-0.32545751333236694,-0.16956494748592377,-0.04315808042883873,-0.008419906720519066,0.09409225732088089,-0.43723204731941223,0.516045868396759
forte_family.m15,0.5192221403121948,-0.0980311706662178,0.30764585733413696,-0.3726089894771576,0.23438076674938202,-0.38046565651893616,-0.03276938945055008,0.41567057371139526,0.3356240689754486,-0.29411646723747253,-0.2680945098400116,-0.34073665738105774,0.10859135538339615,-0.3328845202922821,-0.09258121252059937,0.03742397576570511,-0.18919312953948975,0.4152525067329407,-0.0632302314043045,0.06869546324014664,0.18399052321910858,-0.11154583841562271,-0.4015781581401825,-0.20476414263248444,0.31116485595703125,-0.1565428078174591,0.29496169090270996,-0.6443895697593689,0.4566909372806549,0.18678748607635498,-0.16609026491641998,0.24069838225841522,-0.027040347456932068,-0.3553878962993622,-0.4407333731651306,-0.09082703292369843,-0.03699875250458717,0.40037858486175537,-0.4742390215396881,0.016374893486499786
forte_family.m16,0.20007187128067017,-0.41697630286216736,-0.207413449883461,-0.15438920259475708,0.07407746464014053,-0.1370546668767929,-0.545198380947113,0.08702778816223145,0.2260790765285492,-0.19506949186325073,-0.3747764229774475,-0.21112215518951416,-0.20479600131511688,-0.2650783360004425,-0.18238565325737,-0.20394039154052734,0.10594572871923447,0.18933658301830292,-0.23790286481380463,-0.4399069547653198,0.21661126613616943,0.11505480110645294,-0.1708291918039322,-0.34356722235679626,0.3129802644252777,-0.3696787357330322,0.07767637073993683,-0.23686179518699646,0.3426024615764618,-0.26575642824172974,-0.17177607119083405,0.328920841217041,-0.5695769190788269,-0.3965376913547516,-0.2586129903793335,0.4227408468723297,0.140749990940094,0.22480221092700958,0.07949348539113998,-0.11367321759462357
forte_family.m17,0.2682948410511017,-0.3061811029911041,-0.22344180941581726,-0.35276445746421814,0.09281962364912033,-0.09282626956701279,-0.5625048279762268,0.4176972210407257,0.33826249837875366,-0.16429343819618225,-0.43762773275375366,-0.1390429139137268,0.5576997995376587,-0.24544702470302582,-0.20319661498069763,-0.22307945787906647,0.15019036829471588,-0.0492156557738781,-0.2545471489429474,-0.18282069265842438,0.22400090098381042,0.023436889052391052,-0.19089360535144806,-0.2718166708946228,0.31178757548332214,-0.3730435371398926,0.07898184657096863,-0.23680447041988373,0.34557655453681946,-0.24018558859825134,-0.13726817071437836,0.3304347097873688,0.2486380636692047,-0.3495226800441742,-0.23616372048854828,0.4191361367702484,0.11014200001955032,0.2761935293674469,0.0792151689529419,-0.0012367474846541882
forte_family.m18,0.3901626765727997,-0.28494659066200256,-0.101263627409935,-0.5347725749015808,-0.08261952549219131,0.09296287596225739,0.1539352983236313,0.21919208765029907,0.26031288504600525,-0.22765041887760162,-0.29751676321029663,-0.36263197660446167,0.3263816237449646,-0.39835166931152344,-0.3103938698768616,-0.42153283953666687,-0.4035379886627197,0.1265445351600647,0.16262051463127136,-0.05633940175175667,0.428189754486084,0.3257504999637604,-0.6546345353126526,-0.532452404499054,0.39753976464271545,-0.11788672208786011,0.030337175354361534,-0.30710113048553467,-0.04224986210465431,-0.3814499080181122,-0.1769256293773651,0.2430127114057541,-0.4553157389163971,-0.34421011805534363,0.02026563510298729,0.03929784148931503,-0.22216080129146576,0.08792103081941605,0.04558749869465828,-0.13679195940494537
forte_family.m24,0.028687531128525734,-0.08507261425256729,-0.0133755411952734,-0.44049328565597534,-0.25523144006729126,0.265285849571228,-0.4313831627368927,0.1429632157087326,0.43025699257850647,-0.19397160410881042,-0.3111801743507385,0.024974370375275612,0.029770059511065483,-0.19866302609443665,-0.29860618710517883,-0.23251990973949432,-0.2223644256591797,0.18488238751888275,0.25916576385498047,-0.38022589683532715,0.42002835869789124,-0.024203676730394363,-0.4079764485359192,-0.43533840775489807,0.06052281707525253,-0.42520660161972046,0.35043060779571533,-0.15672965347766876,0.2841317355632782,-0.14080829918384552,-0.3049725592136383,-0.38391080498695374,-0.16659128665924072,-0.48303136229515076,-0.0030994813423603773,0.19209922850131989,-0.13680453598499298,0.2877298891544342,-0.3736664950847626,0.40234899520874023
forte_family.m27,-0.1598769575357437,-0.46512582898139954,-0.3128635585308075,-0.24435634911060333,0.011303008534014225,-0.0465405210852623,-0.26438912749290466,0.2299550175666809,0.3942902982234955,-0.14182978868484497,-0.25775718688964844,0.08712434023618698,0.21564675867557526,-0.2864108383655548,-0.49850034713745117,0.09008245170116425,-0.38867178559303284,0.3046495020389557,0.13435867428779602,-0.14122718572616577,0.2554089426994324,0.0791318267583847,-0.21042604744434357,-0.19784805178642273,0.3697170913219452,-0.30354389548301697,0.4551118016242981,-0.43655410408973694,0.2876766324043274,-0.35586267709732056,-0.28953036665916443,0.27951404452323914,0.10201319307088852,-0.25772935152053833,-0.6693819165229797,-0.12546086311340332,-0.24496757984161377,0.1242753118276596,-0.5998346209526062,0.00668027950450778
forte_family.m29,-0.040310148149728775,-0.32658058404922485,0.3586845099925995,-0.27850425243377686,0.46665650606155396,-0.26154622435569763,-0.4744202196598053,0.24472996592521667,0.21908435225486755,-0.14990657567977905,-0.2220650017261505,-0.3752989172935486,-0.054550185799598694,-0.22941775619983673,-0.24282675981521606,-0.3852319121360779,-0.5599179863929749,0.09014137834310532,-0.21517370641231537,-0.39109593629837036,0.4606311619281769,0.039686355739831924,-0.6413964033126831,-0.22691930830478668,-0.21934975683689117,0.05138429254293442,0.20510528981685638,-0.47127753496170044,0.189901202917099,-0.3435037434101105,-0.20903274416923523,0.39510586857795715,-0.13156640529632568,0.21673057973384857,-0.17674431204795837,0.21674107015132904,-0.36711427569389343,0.24926161766052246,-0.37475866079330444,-0.12850762903690338
forte_family.m3,-0.05023154988884926,-0.4268808364868164,0.9108666777610779,-0.29016879200935364,-0.0567326582968235,-0.7970463037490845,-0.6569002270698547,0.3933092951774597,0.2537858486175537,0.23007385432720184,-0.27941787242889404,-0.2469038963317871,0.035582996904850006,-0.07649938017129898,-0.35842782258987427,-0.4784582555294037,-0.06928301602602005,0.04701166972517967,-0.16073140501976013,-0.41951388120651245,0.3855380713939667,0.05218863859772682,0.10245918482542038,-0.3118586540222168,0.21279343962669373,0.024856170639395714,0.2463596910238266,-0.2743411362171173,0.06102635711431503,-0.03745340555906296,-0.405653178691864,0.15954555571079254,-0.20697279274463654,-0.23449017107486725,-0.10768036544322968,0.07369294762611389,0.17219097912311554,0.29167497158050537,-0.2327682077884674,-0.1608857810497284
forte_family.m4,0.08730031549930573,-0.14929138123989105,0.23667775094509125,-0.07190766930580139,0.44931450486183167,0.3310166001319885,-0.15417401492595673,0.4390130043029785,0.3425104022026062,-0.3515145182609558,-0.3498760759830475,0.24837170541286469,0.21814346313476562,-0.3953598737716675,-0.2265450805425644,-0.275267094373703,-0.3100784420967102,-0.06723491847515106,-0.4666716754436493,-0.129055917263031,0.10052209347486496,-0.07339685410261154,-0.29358726739883423,-0.4768596291542053,0.17490321397781372,-0.2992247939109802,0.3815809190273285,-0.4837225377559662,0.3878940939903259,0.11193626374006271,-0.2534905672073364,0.25551244616508484,0.2831992506980896,-0.23827768862247467,-0.11837243288755417,0.2663400173187256,-0.24621354043483734,0.034403178840875626,-0.4224948585033417,-0.22469675540924072
forte_family.m5,0.12401369959115982,-0.17841486632823944,0.22014154493808746,-0.1704850047826767,0.41329634189605713,0.3208824396133423,-0.08942610025405884,0.18555323779582977,0.4407624900341034,-0.422133207321167,-0.26501205563545227,0.2541532814502716,0.3870319426059723,-0.38146623969078064,-0.3952164351940155,-0.26740938425064087,-0.33989831805229187,-0.05377728492021561,-0.4692418575286865,-0.18608947098255157,0.012411531060934067,0.07011395692825317,-0.2689683139324188,-0.5437784194946289,0.23419758677482605,-0.296034574508667,0.4658798277378082,-0.1058233454823494,0.28529903292655945,0.08863066881895065,-0.27466854453086853,0.24777264893054962,-0.5561892986297607,-0.2260948121547699,-0.25429651141166687,0.2802875339984894,-0.28047728538513184,0.011321069672703743,-0.41620367765426636,0.08181223273277283
forte_family.m6,0.08027644455432892,-0.5068736672401428,0.19714918732643127,-0.1797713339328766,0.4008964002132416,0.3183445930480957,-0.13268102705478668,0.23155826330184937,0.26861879229545593,-0.37555497884750366,-0.30945661664009094,0.25931012630462646,-0.0290702972561121,-0.37129712104797363,-0.42731258273124695,-0.26619255542755127,-0.2752387821674347,-0.3945713937282562,-0.4842366576194763,-0.24613459408283234,0.03506481647491455,0.6177525520324707,-0.2565078139305115,-0.047250811010599136,0.20050527155399323,-0.27973759174346924,0.44187110662460327,-0.3156481981277466,0.3222688138484955,0.04051796346902847,-0.19125349819660187,0.2859131395816803,-0.16971313953399658,-0.1994195431470871,-0.1872287392616272,0.2744580805301666,-0.26427996158599854,0.2102770358324051,-0.4914276599884033,-0.1737263947725296
forte_family.m7,0.08084411174058914,-0.1152138039469719,0.21069665253162384,-0.10972826927900314,0.36963245272636414,0.3216642141342163,-0.10286892205476761,0.15035930275917053,0.42362117767333984,-0.36905035376548767,-0.28128084540367126,0.17951005697250366,0.08634624630212784,-0.36595526337623596,-0.06368669867515564,-0.21437136828899384,-0.299658864736557,0.3910405933856964,-0.44393062591552734,-0.48227110505104065,0.047613538801670074,0.014797836542129517,-0.18497346341609955,0.04847271367907524,0.21668410301208496,-0.29784780740737915,0.5119966268539429,-0.24218976497650146,0.3568178713321686,0.0040976256132125854,-0.2578832507133484,0.22450265288352966,-0.003463685978204012,-0.2857060134410858,-0.4059664309024811,0.21455493569374084,-0.2886798083782196,0.5461331009864807,-0.3921835720539093,0.07541478425264359
forte_family.m9,-0.1786731630563736,-0.39445313811302185,-0.15080098807811737,-0.004011421464383602,-0.6305692195892334,-0.14705269038677216,0.17926229536533356,0.14613419771194458,0.3275582492351532,-0.20997948944568634,0.022904928773641586,-0.21876539289951324,0.14813411235809326,-0.6621131300926208,-0.3558550775051117,-0.21960894763469696,-0.38241711258888245,-0.0394786074757576,-0.27434754371643066,-0.5394114255905151,0.45066654682159424,0.1502453237771988,0.0082915173843503,0.021303700283169746,0.484643816947937,-0.42034947872161865,0.3794911801815033,-0.09267205744981766,0.24681013822555542,-0.27743467688560486,-0.215538889169693,0.5717360377311707,0.07229985296726227,-0.24206529557704926,-0.17273911833763123,0.1843070238828659,-0.2850981652736664,0.0802227333188057,0.06624452769756317,-0.19740451872348785
forte_family.maria,-0.5437228083610535,-0.2908254563808441,0.2019348293542862,0.015807177871465683,0.0700576975941658,-0.10505177080631256,-0.5374079942703247,0.08135316520929337,0.4366285800933838,-0.07782691717147827,-0.2081511914730072,-0.43546262383461,-0.03281530737876892,-0.1956043243408203,-0.10360594838857651,-0.1005435585975647,-0.1730220913887024,0.12321419268846512,-0.3166569173336029,-0.2451750636100769,0.30536386370658875,0.013975618407130241,-0.0362173356115818,-0.16369585692882538,0.3198992609977722,-0.2693520784378052,0.2069471776485443,-0.4164803624153137,0.09061196446418762,-0.048234619200229645,0.17075978219509125,0.023026932030916214,-0.2817649245262146,-0.12203247845172882,-0.11699216812849045,-0.0712108314037323,-0.5108056664466858,0.17307882010936737,-0.39019590616226196,-0.3597010374069214
forte_family.mark,-0.11522011458873749,-0.6314751505851746,0.40564432740211487,-0.4418562352657318,-0.2640599012374878,-0.3039627969264984,-0.1599045842885971,0.25580766797065735,0.2149004489183426,0.16282919049263,-0.37899714708328247,0.09088055789470673,-0.1086609736084938,-0.3349381387233734,-0.35214999318122864,-0.16668552160263062,-0.332763135433197,0.16170252859592438,-0.1709694266319275,-0.10715959221124649,0.5405324101448059,0.16832587122917175,-0.3261078894138336,-0.456969678401947,0.2622813880443573,-0.519626796245575,-0.048371851444244385,0.1990288645029068,0.26340752840042114,-0.20188340544700623,-0.3155761659145355,-0.03402351960539818,0.0845131203532219,-0.055213551968336105,-0.27842286229133606,-0.257869690656662,-0.21623824536800385,0.4890003800392151,0.2952668070793152,-0.09384475648403168
forte_family.martha,-0.255473792552948,-0.3087949752807617,0.33765584230422974,-0.30680179595947266,0.32033130526542664,-0.23255972564220428,-0.17307525873184204,-0.07367341965436935,0.460260272026062,-0.20147056877613068,-0.26535743474960327,-0.37090563774108887,0.3648008704185486,-0.3695421516895294,-0.2540721893310547,-0.3292984068393707,-0.24998198449611664,0.4065096974372864,-0.3265199065208435,-0.15137091279029846,0.33335617184638977,0.008639819920063019,-0.18273276090621948,-0.14023493230342865,0.40173158049583435,-0.4186896085739136,0.026777757331728935,-0.061676766723394394,0.3014831840991974,-0.3324397802352905,-0.20635177195072174,0.01756761409342289,-0.22839917242527008,-0.22774651646614075,-0.14128567278385162,-0.14154712855815887,-0.1535770744085312,0.04268868267536163,-0.31523463129997253,-0.5517049431800842
forte_family.melvin,-0.15742526948451996,-0.41395631432533264,0.2738705575466156,0.023434802889823914,-0.005428725853562355,-0.1351795345544815,-0.7197511792182922,0.12243467569351196,0.172699436545372,-0.22148138284683228,0.02268870733678341,-0.3707617223262787,0.44899773597717285,-0.1168476939201355,0.04277428239583969,0.0516708679497242,-0.06227877363562584,0.14731252193450928,-0.2928124964237213,-0.1367805004119873,-0.018807830289006233,0.07478272169828415,0.10865745693445206,-0.4218612313270569,0.3476618826389313,-0.32589858770370483,0.07167980074882507,-0.3229769766330719,0.07992258667945862,-0.07300092279911041,-0.3943818509578705,-0.08713462948799133,-0.3550877571105957,-0.15981219708919525,-0.4413048326969147,-0.0331537202000618,-0.6418657302856445,0.13805392384529114,-0.49621209502220154,0.009641357697546482
forte_family.nancy,-0.13999487459659576,-0.24997711181640625,0.1053260862827301,-0.09363061934709549,-0.1716083288192749,-0.2591283917427063,-0.48899737000465393,0.048264119774103165,0.20620863139629364,-0.12160821259021759,-0.017571518197655678,-0.3184228539466858,-0.3142355680465698,-0.24349382519721985,-0.39563238620758057,0.05031827464699745,0.04665406420826912,-0.057128001004457474,-0.2502337098121643,-0.15009097754955292,0.05144163593649864,-0.08879668265581131,-0.055329564958810806,-0.18322402238845825,0.34882840514183044,-0.27291151881217957,-0.08861749619245529,-0.5578004121780396,0.02439762093126774,-0.11236029118299484,-0.2806607186794281,-0.0404151976108551,-0.15374071896076202,-0.20880226790905,0.034556977450847626,0.011173170059919357,-0.3264850378036499,0.466435968875885,-0.5025827288627625,0.03883948177099228
forte_family.neil,-0.016473622992634773,-0.40378889441490173,0.2132480889558792,-0.18756864964962006,-0.15419766306877136,-0.3909895420074463,-0.2642399072647095,0.023344194516539574,-0.08942310512065887,-0.3151627779006958,-0.424486368894577,-0.13609331846237183,0.08096088469028473,-0.3350577652454376,-0.08117441087961197,-0.1543111652135849,-0.3463713824748993,0.09435630589723587,-0.2812027931213379,-0.25441691279411316,0.2696819603443146,-0.047795362770557404,-0.35011860728263855,-0.3079991042613983,0.30035582184791565,-0.09836709499359131,-0.06631883978843689,-0.5620718598365784,0.5774973034858704,0.07521364092826843,-0.28420981764793396,0.11313961446285248,0.013161089271306992,-0.23742663860321045,0.05786975100636482,0.20847700536251068,-0.17932748794555664,0.20566867291927338,-0.2682105004787445,-0.14603018760681152
forte_family.nero,0.06830711662769318,-0.2664037048816681,0.37342795729637146,-0.1812320053577423,-0.19740454852581024,0.09439419209957123,-0.275167316198349,0.18656645715236664,0.32589441537857056,-0.12374898046255112,-0.15203499794006348,-0.5518398880958557,0.22095227241516113,-0.4100428521633148,-0.04053812101483345,-0.02485102042555809,0.09154386818408966,0.5897842645645142,-0.2415633201599121,-0.22495488822460175,0.11765069514513016,0.13673284649848938,0.0486520454287529,-0.27752649784088135,0.40160903334617615,-0.11202958226203918,0.24954597651958466,-0.08919385075569153,0.07079378515481949,0.17778146266937256,0.23378817737102509,0.3503386080265045,-0.15537326037883759,0.1758444458246231,-0.5766499042510986,0.2287195771932602,-0.4272874593734741,0.3355410397052765,-0.08730009198188782,-0.04395390674471855
forte_family.nonnie,-0.34791940450668335,-0.29457759857177734,0.36752817034721375,-0.4598129987716675,0.08168703317642212,0.002605436835438013,-0.17887213826179504,0.018689274787902832,0.6019688248634338,0.019258465617895126,-0.5980165004730225,-0.2702232897281647,-0.07990609109401703,-0.33563584089279175,-0.022924216464161873,-0.14834648370742798,0.03086916171014309,0.08354209363460541,-0.2863177955150604,-0.10945882648229599,0.2134002447128296,-0.008454374969005585,-0.08093515038490295,-0.12727612257003784,0.24419958889484406,-0.42966270446777344,0.24166347086429596,-0.20216648280620575,0.21281902492046356,-0.36906713247299194,0.05496379733085632,0.11998649686574936,-0.19857409596443176,-0.057647448033094406,-0.15442317724227905,0.03260383754968643,-0.3965706527233124,0.11147904396057129,-0.20789480209350586,-0.33886730670928955
forte_family.oma,-0.1249944269657135,-0.1033007800579071,0.3407766819000244,-0.38344770669937134,-0.04432486742734909,-0.4145051836967468,-0.1768232136964798,0.14538371562957764,0.21094653010368347,-0.1361524909734726,-0.00361571554094553,0.02486838772892952,-0.050710633397102356,-0.23446892201900482,-0.3768691420555115,-0.018514318391680717,0.012647449970245361,-0.12390895187854767,-0.27337658405303955,-0.2433287501335144,0.297124981880188,-0.14237284660339355,-0.12461741268634796,-0.08956722170114517,-0.09782067686319351,-0.3706623613834381,0.29344382882118225,-0.18550808727741241,0.045335035771131516,-0.26947110891342163,0.14933940768241882,0.1174895167350769,-0.4761340916156769,-0.4072851538658142,-0.1984347403049469,0.17880886793136597,-0.3385096490383148,0.0478559210896492,-0.39324429631233215,-0.24433590471744537
forte_family.owen,-0.21257558465003967,0.002450601663440466,0.2028864324092865,-0.390230655670166,0.0761895403265953,-0.48595908284187317,-0.13406801223754883,0.1962382197380066,0.032283756881952286,-0.12579265236854553,-0.10163194686174393,-0.2600845992565155,0.19073356688022614,-0.30628064274787903,-0.48407089710235596,-0.18050560355186462,-0.12276007980108261,0.06890661269426346,-0.325943261384964,-0.13373443484306335,0.5131621360778809,-0.05328863114118576,-0.2744334936141968,-0.08521413803100586,0.04688726365566254,-0.4490721821784973,0.25262871384620667,-0.36381420493125916,0.4295022487640381,-0.11454036086797714,-0.5608710050582886,0.12763750553131104,-0.07790113985538483,-0.3009319603443146,-0.23218224942684174,0.10189151018857956,-0.36074262857437134,0.04037482291460037,-0.4555864632129669,-0.0962095707654953
forte_family.paul,-0.2234964370727539,-0.29947760701179504,0.4260733127593994,-0.24066367745399475,-0.3472999930381775,-0.24712547659873962,-0.26550206542015076,0.1624990999698639,0.17244398593902588,-0.2827140688896179,0.01635180413722992,0.10188574343919754,0.02992793545126915,-0.1555095911026001,-0.30795350670814514,-0.08948326855897903,-0.03788161650300026,-0.27447885274887085,-0.33163192868232727,-0.17725275456905365,0.35024386644363403,0.4907442629337311,-0.2937960624694824,-0.21886569261550903,-0.04076439142227173,-0.42264196276664734,0.2729550898075104,0.028269870206713676,0.23635178804397583,-0.3524266183376312,0.26801085472106934,0.13828666508197784,0.21914353966712952,0.002898842329159379,-0.24860452115535736,0.22346830368041992,-0.4365856647491455,0.4226519763469696,-0.3706783056259155,-0.28076043725013733
forte_family.paula,-0.38207802176475525,0.016855625435709953,0.44701191782951355,-0.2827175259590149,0.18174947798252106,-0.22450965642929077,-0.3917660117149353,-0.03426380082964897,0.354996919631958,-0.1642090529203415,-0.6415331363677979,-0.24452337622642517,0.3405713438987732,-0.32303234934806824,-0.3070670962333679,-0.0693729817867279,-0.09370283037424088,0.1499546617269516,-0.36553314328193665,-0.24545934796333313,0.44157007336616516,0.06660643965005875,-0.2620963454246521,-0.08500722050666809,0.11260174214839935,-0.5219234824180603,0.2182411104440689,-0.12473355978727341,0.2718285620212555,-0.1487274169921875,0.0897197276353836,0.22504964470863342,-0.21600620448589325,-0.15258778631687164,-0.11072265356779099,0.14382252097129822,-0.44225555658340454,0.3391686677932739,-0.4727550148963928,-0.27113059163093567
forte_family.peter,-0.053219135850667953,-0.11041022837162018,0.005999681539833546,-0.38876065611839294,0.31935641169548035,-0.3497249484062195,-0.2508935034275055,0.09134069830179214,0.01310765091329813,-0.12394306063652039,-0.24941548705101013,-0.16582079231739044,0.11234340071678162,-0.3588641881942749,-0.021496428176760674,-0.1557886153459549,0.0826815515756607,0.2698203921318054,-0.30929186940193176,-0.14846140146255493,0.4182685315608978,0.44720616936683655,-0.05888768658041954,-0.19923128187656403,0.14807942509651184,-0.295249342918396,0.29653412103652954,-0.4785116910934448,0.5233171582221985,-0.5719903707504272,0.041697561740875244,0.13061706721782684,-0.10513382405042648,-0.13577474653720856,-0.324972540140152,0.11272040754556656,-0.3987930417060852,0.1881778985261917,-0.29350173473358154,-0.2547789216041565
forte_family.prissie,-0.10636334866285324,0.047543104737997055,0.07935106754302979,-0.21810580790042877,-0.28493532538414,-0.43114620447158813,-0.05225558951497078,0.08330562710762024,0.14509955048561096,-0.3696962893009186,-0.452505499124527,-0.2386825680732727,-0.22395530343055725,-0.029739536345005035,-0.14255255460739136,0.01042478159070015,0.12598086893558502,0.005469809286296368,0.10176759213209152,-0.19620607793331146,0.14245207607746124,0.09625153988599777,-0.2466953843832016,-0.12006233632564545,0.46227651834487915,-0.15778209269046783,0.37592488527297974,-0.48623719811439514,0.0931166410446167,-0.43970391154289246,0.025780262425541878,0.14796477556228638,-0.13265876471996307,0.04437495395541191,-0.05892936885356903,0.12709681689739227,-0.418850839138031,0.022586897015571594,-0.2970488667488098,0.09449862688779831
forte_family.rachel,-0.2172939032316208,-0.2650359272956848,0.2606469392776489,-0.0764249786734581,-0.44348710775375366,-0.3145642578601837,-0.19995440542697906,0.41086241602897644,0.2754473388195038,-0.11087865382432938,0.08444137126207352,0.21211206912994385,0.6471808552742004,-0.33735913038253784,-0.2691724896430969,0.0763537585735321,-0.025833893567323685,0.4063902795314789,-0.3838202953338623,-0.1910114586353302,0.43277809023857117,0.15270668268203735,-0.32074102759361267,-0.31103459000587463,0.08257278800010681,-0.38322219252586365,0.37215083837509155,-0.6297317147254944,0.343093603849411,-0.1361505389213562,0.27674511075019836,0.1789735108613968,0.1302565634250641,-0.20530268549919128,-0.20225359499454498,0.2806573212146759,-0.43782269954681396,0.16146114468574524,-0.4411073625087738,-0.20742972195148468
forte_family.ray,-0.14227890968322754,-0.05290299654006958,-0.06333058327436447,-0.12758798897266388,0.4318212866783142,-0.46774911880493164,-0.2834544777870178,0.13890358805656433,0.4743085503578186,-0.28057441115379333,-0.3248283565044403,-0.3446640372276306,-0.15243780612945557,-0.33236581087112427,0.1262928992509842,-0.12505309283733368,-0.24784407019615173,-0.0634002834558487,-0.09590134024620056,-0.3939718008041382,0.3106866776943207,0.0027288764249533415,0.0619245320558548,-0.4310249090194702,0.1851205974817276,-0.3712823987007141,0.36815696954727173,-0.4487344026565552,0.3307611644268036,0.22881825268268585,-0.15967656672000885,-0.17819783091545105,-0.30979567766189575,0.16754581034183502,-0.16303564608097076,0.27896472811698914,0.13135632872581482,0.30257993936538696,-0.08727751672267914,0.006575912702828646
forte_family.regina,-0.31488314270973206,-0.0540364645421505,0.203019917011261,-0.2529850900173187,0.3767273724079132,-0.3292236328125,-0.31557732820510864,0.09871784597635269,0.4495207667350769,0.16078460216522217,-0.403166800737381,-0.3852066397666931,0.2393142729997635,-0.3621579110622406,-0.1997576653957367,-0.05057111009955406,-0.1263224333524704,0.04956640675663948,-0.3751407265663147,-0.19042809307575226,0.3810994625091553,-0.20433863997459412,-0.347917377948761,-0.119947649538517,0.13983726501464844,-0.38948574662208557,0.26147913932800293,-0.4526037871837616,0.29776763916015625,-0.26505598425865173,-0.19077615439891815,0.005718658212572336,0.18068425357341766,-0.0243301372975111,0.0466499999165535,0.12677747011184692,-0.23362575471401215,0.24638661742210388,-0.22396165132522583,-0.24010777473449707
forte_family.steve,-0.3949171304702759,-0.32705429196357727,0.392394483089447,-0.4523218274116516,0.3705701231956482,-0.42194846272468567,-0.09493637830018997,-0.21137700974941254,0.010056721046566963,-0.015673140063881874,-0.4588366150856018,-0.37080118060112,0.22468429803848267,-0.26220816373825073,-0.003234894946217537,-0.20680570602416992,-0.28229811787605286,0.2310187965631485,-0.263153612613678,-0.15509672462940216,0.5276864171028137,-0.09883609414100647,-0.22373726963996887,-0.17410774528980255,0.4409695863723755,-0.0012202035868540406,0.23042942583560944,-0.2152150422334671,0.20691224932670593,0.06738292425870895,-0.17291902005672455,0.19327835738658905,0.005220650229603052,-0.1003631055355072,-0.3674459457397461,0.10313007235527039,-0.2588769793510437,0.3206949234008789,-0.3612241744995117,-0.27752846479415894
forte_family.susan,-0.30128416419029236,-0.3053746223449707,0.37102434039115906,-0.338512122631073,0.5024195909500122,-0.44262149930000305,0.23119905591011047,-0.10746780782938004,0.28677740693092346,-0.027372341603040695,-0.271415114402771,-0.32761523127555847,0.02779771387577057,-0.3753755986690521,-0.08931531757116318,-0.05309102311730385,-0.39521509408950806,0.26018330454826355,-0.2915894389152527,-0.2842814028263092,0.4520282447338104,-0.10504300147294998,-0.06079826503992081,-0.1673351675271988,0.3579898476600647,-0.007362995762377977,0.21653012931346893,-0.4910052716732025,0.0373237282037735,-0.29696181416511536,-0.21372409164905548,0.19192080199718475,-0.06896365433931351,-0.04267266392707825,-0.08323127776384354,0.18300914764404297,-0.14613232016563416,0.14382590353488922,-0.23341447114944458,-0.4516083300113678
forte_family.terri,-0.04117264971137047,-0.3600965738296509,0.3309934139251709,-0.07671934366226196,0.0716562494635582,-0.040866918861866,-0.09612539410591125,-0.10501625388860703,0.4676925241947174,-0.11677886545658112,-0.3864288926124573,-0.3799823820590973,0.03219321742653847,-0.4685509502887726,-0.19309620559215546,-0.1964520961046219,-0.28382548689842224,0.26891204714775085,-0.280226469039917,-0.1855786293745041,0.3942188322544098,-0.06704875081777573,-0.0016204777639359236,-0.11552867293357849,0.10890165716409683,-0.2717791795730591,0.11330797523260117,-0.15643906593322754,0.2147592455148697,-0.09587374329566956,-0.18222926557064056,0.05576128140091896,0.07001440227031708,-0.2091967612504959,0.067719005048275,0.047383178025484085,-0.2271377295255661,0.36639371514320374,-0.48258423805236816,-0.13438475131988525
forte_family.terry,-0.2764030396938324,-0.4437482953071594,0.3204638957977295,-0.19551849365234375,0.1378164440393448,0.029924148693680763,-0.17298197746276855,0.10897727310657501,0.44751253724098206,-0.17285984754562378,-0.4359109401702881,-0.01929379068315029,0.2539408504962921,-0.5374981760978699,0.21574418246746063,0.03207630664110184,-0.43923503160476685,-0.0928436815738678,-0.22235029935836792,-0.5731595158576965,0.40219369530677795,-0.059180911630392075,0.03812214732170105,-0.34619882702827454,0.020207606256008148,-0.3414768576622009,0.014161515980958939,0.1050047054886818,0.19919109344482422,-0.13469856977462769,-0.21198628842830658,0.027744431048631668,-0.26433321833610535,-0.19699110090732574,-0.12677009403705597,0.16607287526130676,0.14015056192874908,0.4628334939479828,-0.34947600960731506,-0.026949770748615265
forte_family.umo,-0.2549494206905365,-0.1163189560174942,0.3340604305267334,0.24209299683570862,0.06513229012489319,-0.06789999455213547,-0.08793517202138901,0.1120433583855629,0.5090416669845581,-0.2067212611436844,0.1596822738647461,-0.349580317735672,-0.13496601581573486,-0.026737382635474205,-0.34847337007522583,-0.2701425850391388,-0.2632528245449066,0.024170542135834694,0.3867466151714325,-0.5255079865455627,0.3834204077720642,0.25092002749443054,-0.3025611937046051,-0.33757978677749634,0.2912319600582123,-0.37017956376075745,0.08081752061843872,-0.31157803535461426,0.34240347146987915,-0.06602539867162704,-0.13430805504322052,0.23199604451656342,-0.16033920645713806,-0.31619349122047424,-0.3539842367172241,0.5497116446495056,-0.12384634464979172,0.08136075735092163,-0.19160953164100647,0.21853813529014587
forte_family.walt,-0.12440724670886993,-0.1321488320827484,0.22345975041389465,-0.21007755398750305,-0.058148715645074844,-0.21055889129638672,-0.012737604789435863,0.02975279651582241,0.36733487248420715,-0.4709990918636322,-0.15445956587791443,-0.23624694347381592,-0.04825529828667641,-0.18861673772335052,0.040253959596157074,-0.19631493091583252,-0.4274695813655853,0.04899078607559204,-0.26826781034469604,-0.1488875448703766,0.5217320322990417,0.39775633811950684,-0.39993855357170105,-0.14015302062034607,0.30455392599105835,-0.18844549357891083,0.11099948734045029,-0.23745907843112946,0.34607994556427,-0.353519082069397,-0.4096939265727997,0.014585348777472973,0.09811747074127197,-0.13128016889095306,-0.08640069514513016,0.07221474498510361,-0.5071730613708496,0.2547892928123474,-0.167892724275589,-0.12127585709095001
forte_family.wendy,-0.17699697613716125,0.08058550208806992,0.25614073872566223,-0.4816782474517822,-0.20731961727142334,-0.09031405299901962,-0.06717126816511154,-0.035675738006830215,0.37511807680130005,-0.45112377405166626,0.030647119507193565,-0.3232128918170929,0.44361287355422974,-0.04032979533076286,-0.24189400672912598,-0.16073359549045563,-0.2826916575431824,0.004453906323760748,0.2532777786254883,0.0037050163373351097,0.32119205594062805,0.057453811168670654,-0.15329159796237946,-0.01929592899978161,0.3721393942832947,-0.37414756417274475,0.06928335130214691,-0.33487972617149353,0.2742144465446472,-0.40119603276252747,-0.029671557247638702,0.18878516554832458,-0.13897979259490967,-0.43733057379722595,0.02891968935728073,0.3832220435142517,-0.466532826423645,0.41065847873687744,-0.17465557157993317,-0.20246873795986176
forte_family.married,0.39791348576545715,0.8463671803474426,-0.08310601115226746,0.27316489815711975,-0.01206941157579422,-0.3861938416957855,-0.19148942828178406,0.06380024552345276,0.0995418131351471,-0.14664605259895325,-0.2858923375606537,0.08945946395397186,-0.6185251474380493,-0.10189281404018402,0.20258592069149017,0.33185210824012756,0.023639380931854248,0.4326607584953308,0.34116485714912415,-0.185807004570961,0.2716914713382721,0.5876485705375671,0.12606669962406158,-0.16106514632701874,-0.0727553740143776,0.36048537492752075,-0.2006300538778305,-0.7794212102890015,-0.2348819077014923,0.21285021305084229,0.03575562685728073,0.5906383991241455,0.2280581295490265,0.16232073307037354,-0.08258438855409622,0.20373977720737457,0.1827096939086914,0.0026375548914074898,0.39098361134529114,0.3163577616214752
forte_family.parent,-0.13618609309196472,0.0881514623761177,0.12635013461112976,0.08992817252874374,0.09271001815795898,-0.4688427448272705,0.8685989379882812,-0.16345572471618652,-0.33041417598724365,-0.3609466254711151,-0.4844854176044464,0.08188014477491379,0.46741950511932373,0.2264268547296524,-0.0011070937616750598,-0.27873221039772034,-0.08569271117448807,0.27303895354270935,0.32953426241874695,0.21578587591648102,-0.16862753033638,0.1567445546388626,0.6555118560791016,0.021341677755117416,-0.2868178188800812,-0.4375171661376953,0.2234257608652115,-0.48935791850090027,0.24637873470783234,0.14006929099559784,0.2535540461540222,-0.17471247911453247,-0.0939345508813858,-0.0363197959959507,0.10554271936416626,0.04798552393913269,0.5229127407073975,-0.5902718305587769,-0.4703529477119446,0.17980673909187317
forte_family.sibling,0.629725456237793,-0.3656921088695526,0.15735216438770294,-0.032087817788124084,-0.10637656599283218,0.6530054211616516,-0.5626456141471863,-0.3237745463848114,0.1657072901725769,0.31623968482017517,0.2711640000343323,0.3530317544937134,-0.5454004406929016,-0.08807157725095749,-0.12616783380508423,0.2539209723472595,0.10606299340724945,-0.33555448055267334,0.592920184135437,-0.751133382320404,-0.5110865831375122,-0.08047983795404434,0.010223315097391605,0.48871514201164246,-0.08165348321199417,0.16040176153182983,-0.17474767565727234,-0.3400987386703491,0.17128483951091766,0.08190033584833145,0.21687161922454834,-0.0005373660242184997,0.05682479217648506,0.20974081754684448,0.16252750158309937,-0.6181789636611938,-0.3586478531360626,-0.3479255437850952,0.138338103890419,-0.5704049468040466
